solver_type L2R_LR
nr_class 2
label 1 -1
nr_feature 50
bias -1.000000000000000
w
1.993222821968779 
2.030002219412025 
1.912381572682827 
1.951265514382923 
2.188424237846100 
1.983137121255172 
2.264023005865342 
1.627115068883705 
1.659701099620573 
1.771262532722076 
2.000368675689874 
1.905489383574470 
1.831347354515664 
1.913427598829410 
1.982977817604211 
1.863152811165691 
1.758813356990821 
2.119976468874307 
1.867011639578635 
1.861275703190820 
1.687423300646303 
2.006572581551010 
2.057785647145862 
1.971308694024546 
2.023363537703973 
2.020509360402747 
1.752001881274951 
1.979692117700747 
1.736499079577484 
2.313222435250032 
1.754028588899139 
1.756336857756413 
1.905913226621562 
2.068111067817538 
2.052473007126715 
1.687216858464536 
2.117637950131384 
1.988400543602451 
2.000285685950729 
2.273046788968101 
2.214238349119097 
1.814633210302878 
2.071545682744286 
1.900632208759116 
2.332998226912268 
2.194580032479786 
1.974172686352050 
1.879320514823642 
1.998407461476736 
2.065034114747046 
