solver_type L2R_L2LOSS_SVC
nr_class 2
label 1 -1
nr_feature 50
bias -1.000000000000000
w
0.6473211851763910 
0.6916173164183944 
0.6802805044317608 
0.6445842741277430 
0.7659183580799768 
0.6806144622295139 
0.7633630520155056 
0.5505293797579988 
0.6956743029815109 
0.6620106142544141 
0.7090776658895794 
0.7284088363795478 
0.7235201208146550 
0.7012182437294370 
0.6962598052639782 
0.6519265777074450 
0.5785988537278168 
0.7076489253735834 
0.6732330916716086 
0.7760187962794257 
0.6167846187799858 
0.7671749227669550 
0.7569875399401453 
0.7457522127197299 
0.7022149657495504 
0.7633830005786918 
0.6443387325114623 
0.7833589076293609 
0.7249240735424012 
0.8047268831621285 
0.6418596161800373 
0.6893024945203071 
0.5909571129755644 
0.7994325215356506 
0.7575217296960894 
0.6453522725063670 
0.7307140779137947 
0.7242793208869710 
0.6989564350643411 
0.7009256742698083 
0.7230413503039116 
0.6881153931169703 
0.6590858468533318 
0.7576207942404770 
0.7691851013547248 
0.7381652430206100 
0.7339945935010147 
0.6465805622435906 
0.6970491823197986 
0.7237553345278771 
